{"type":"LSTM","options":{"inputSize":5,"inputRange":5,"hiddenLayers":[9,8,6,3],"outputSize":5,"decayRate":0.999,"smoothEps":1e-8,"regc":0.000001,"clipval":5,"maxPredictionLength":100,"dataFormatter":{"indexTable":{".":0,"..":1,"stop-input":2,"start-output":3,"unrecognized":4},"characterTable":{"0":".","1":"..","2":null,"3":null,"4":null},"values":[{"input":[".",".."],"output":".."},{"input":["..",".."],"output":".."},{"input":["..","."],"output":"."}],"characters":[".","..","stop-input","start-output","unrecognized"],"specialIndexes":[2,3,4]}},"trainOpts":{"iterations":null,"errorThresh":0.1,"logPeriod":6666,"learningRate":0.1,"callbackPeriod":6667,"timeout":"Infinity"},"input":{"rows":6,"columns":5,"weights":[0.013433583080768585,0.017272833734750748,-0.04298097640275955,-0.014892891980707645,-0.049671828746795654,-0.0250721275806427,-0.035993367433547974,-0.018079446628689766,0.002669545589014888,0.03620053455233574,-0.04830775409936905,0.044464804232120514,-0.084347665309906,0.05410746857523918,-0.07394556701183319,0.018521748483181,0.009810679592192173,-0.02596905082464218,0.06365462392568588,-0.07349272072315216,0.029328377917408943,-0.013191581703722477,-0.05086205154657364,0.07866819947957993,-0.011822639964520931,0.037974774837493896,0.04844643175601959,-0.06763385981321335,-0.05675039812922478,-0.0076468572951853275]},"hiddenLayers":[{"inputMatrix":{"rows":9,"columns":5,"weights":[0.0390000157058239,-0.009962663985788822,-0.012458965182304382,-0.01988830976188183,-0.04624177888035774,0.010569106787443161,-0.01744203269481659,0.021271847188472748,0.010412233881652355,0.059314507991075516,-0.031078923493623734,0.07832043617963791,-0.003648742102086544,0.050582095980644226,0.06073404848575592,0.059793416410684586,0.04809686169028282,-0.02531041018664837,-0.045892659574747086,-0.050491295754909515,-0.00602440070360899,-0.03871117904782295,-0.009852427989244461,-0.051662739366292953,0.056540597230196,0.04431021213531494,0.006841724738478661,0.05235910415649414,0.03932490572333336,0.045763541013002396,-0.04333570972084999,0.05209338292479515,-0.05554782599210739,0.071883924305439,-0.019825972616672516,0.05268903449177742,-0.049649760127067566,-0.02772827260196209,0.040461886674165726,-0.0501042902469635,-0.002294223988428712,0.0610710084438324,-0.010052039287984371,-0.05025148764252663,0.002864568494260311]},"inputHidden":{"rows":9,"columns":9,"weights":[0.04690375179052353,-0.055126260966062546,-0.010369677096605301,-0.06009972468018532,0.03740319982171059,-0.04726322740316391,0.026134068146348,0.07524783164262772,-0.019542662426829338,-0.057812463492155075,0.018504677340388298,-0.07265924662351608,0.002555683720856905,-0.0698646679520607,0.057215768843889236,-0.04546550661325455,0.07546651363372803,-0.0456293523311615,0.03451836481690407,-0.06936688721179962,0.019502751529216766,-0.03295687958598137,-0.03990323469042778,-0.05282583832740784,-0.050189100205898285,0.07225456833839417,0.02617792971432209,0.07790620625019073,0.050176095217466354,-0.013728762976825237,-0.03258267045021057,0.014609533362090588,0.04191833734512329,-0.059565287083387375,0.04957510903477669,-0.03027409315109253,0.07388858497142792,-0.03430107235908508,0.04116435721516609,0.03618597239255905,-0.01074918545782566,-0.053182024508714676,-0.018839064985513687,-0.006393292918801308,0.00671454519033432,-0.060981716960668564,0.024909846484661102,0.07487322390079498,-0.008222383446991444,-0.0029371215496212244,0.06782027333974838,-0.02322058193385601,-0.06248743087053299,-0.034038979560136795,-0.06079390272498131,0.07390020787715912,0.025326697155833244,-0.06911039352416992,-0.0763121023774147,0.014755028299987316,-0.05318010598421097,0.04806291311979294,0.03786884620785713,0.05853373184800148,0.005233995150774717,-0.01989586092531681,0.0063727907836437225,0.005262774880975485,-0.04657083749771118,-0.025841979309916496,0.05502307415008545,0.006904254667460918,0.058567289263010025,0.0012060620356351137,-0.011587413027882576,0.07001101225614548,0.05153854936361313,-0.06611727178096771,-0.03004700131714344,0.004900956526398659,0.06764355301856995]},"inputBias":{"rows":9,"columns":1,"weights":[-0.00005656479697790928,-0.00003355032822582871,0.0000016894792906896328,-0.00003379940608283505,0.000006504028533527162,0.0000717256116331555,0.000002235155079688411,-0.0000061185783124528825,-0.00004457126124179922]},"forgetMatrix":{"rows":9,"columns":5,"weights":[-0.06407130509614944,-0.07970181852579117,-0.03453768417239189,-0.04492124170064926,0.01465761847794056,0.004629533737897873,-0.0014067220035940409,-0.009919322095811367,0.009576961398124695,-0.0521666556596756,-0.04385329410433769,-0.04819514974951744,0.034908607602119446,0.011444800533354282,-0.03139529377222061,-0.0027142500039190054,0.03483731299638748,-0.03291215002536774,-0.008141808211803436,-0.04524443671107292,0.07912412285804749,-0.015726175159215927,-0.056850865483284,-0.0436556413769722,-0.04418625310063362,-0.07587461173534393,-0.0764477401971817,0.046557363122701645,0.07621121406555176,0.04147426411509514,0.016107946634292603,0.05216122418642044,0.06135917082428932,-0.041386570781469345,-0.040893424302339554,0.039791740477085114,0.026948126032948494,0.0567585714161396,0.06596788763999939,0.025118915364146233,-0.06416092067956924,-0.048873405903577805,0.0739189013838768,0.0694638267159462,0.04551338776946068]},"forgetHidden":{"rows":9,"columns":9,"weights":[0.03355275094509125,0.05823329836130142,-0.0125277703627944,-0.008046460337936878,0.03726619854569435,-0.029546409845352173,0.07068165391683578,-0.04382989928126335,-0.020771034061908722,-0.01850076951086521,-0.039450328797101974,-0.05328858271241188,0.0261851754039526,0.05000681430101395,-0.029853997752070427,-0.07048558443784714,0.018689991906285286,0.07871326059103012,0.04116342216730118,0.007095113396644592,-0.0627238005399704,0.031131964176893234,-0.054245855659246445,0.033661410212516785,-0.04636938124895096,-0.07360004633665085,-0.07962008565664291,0.02261994779109955,0.03823148459196091,-0.05043935030698776,-0.04654432460665703,-0.01607316918671131,-0.009217094630002975,0.015599939972162247,0.05503537505865097,0.0019856777507811785,0.009422315284609795,0.07698836177587509,0.05315031483769417,-0.06161084771156311,0.054554905742406845,0.04983729496598244,-0.04921049624681473,0.003968521021306515,-0.042557135224342346,0.026675548404455185,0.045998331159353256,-0.07455307245254517,-0.06616488844156265,0.030307462438941002,0.017913969233632088,0.02664639614522457,-0.008825564756989479,0.06807626038789749,-0.04857490211725235,0.040202002972364426,-0.034861985594034195,-0.05072129890322685,-0.07430748641490936,0.06466559320688248,-0.010090794414281845,-0.05382784083485603,-0.03489600121974945,0.06652603298425674,0.0000810644996818155,-0.057638198137283325,0.07175928354263306,0.058155469596385956,0.013925469480454922,-0.054687898606061935,0.031618352979421616,-0.045403853058815,-0.05459130182862282,-0.0733664259314537,-0.04932186007499695,-0.03895058110356331,-0.07525940239429474,0.010411120019853115,0.009925355203449726,0.018724093213677406,-0.008326123468577862]},"forgetBias":{"rows":9,"columns":1,"weights":[0,0,0,0,0,0,0,0,0]},"outputMatrix":{"rows":9,"columns":5,"weights":[-0.076637864112854,0.04856573045253754,-0.04348888248205185,-0.04550809785723686,-0.04624416306614876,0.05082026496529579,-0.04783245548605919,-0.0644310861825943,0.07062631845474243,-0.027791190892457962,0.03159325569868088,0.03394922614097595,0.007837713696062565,-0.03556211292743683,-0.032273393124341965,0.044978778809309006,0.06318211555480957,-0.035812459886074066,0.02651088871061802,0.002419540658593178,0.03092224895954132,-0.02064838632941246,-0.0325775146484375,-0.03937844932079315,0.01762675680220127,-0.027702435851097107,-0.07313032448291779,0.05998329445719719,-0.042367368936538696,-0.015160636976361275,0.05870302394032478,-0.06746494024991989,0.02115519344806671,0.01654517464339733,-0.015502032823860645,-0.025621039792895317,-0.0458359457552433,0.004116795491427183,0.01369954738765955,0.014333208091557026,-0.03247428685426712,0.07377701252698898,-0.003208910347893834,-0.0228853989392519,-0.04143457114696503]},"outputHidden":{"rows":9,"columns":9,"weights":[0.03331858292222023,0.07489043474197388,0.03545496612787247,0.056790050119161606,-0.03057285025715828,0.02241571806371212,0.06900925934314728,-0.016311222687363625,-0.03772958740592003,-0.03305799886584282,0.00006114362622611225,-0.01257872860878706,0.039427291601896286,0.049936793744564056,0.06543301045894623,-0.03693358972668648,-0.03807920962572098,0.010667569935321808,-0.04027585685253143,0.06585068255662918,0.061028897762298584,-0.05336030200123787,-0.01148819737136364,0.07208803296089172,-0.019052278250455856,-0.024807287380099297,-0.010246895253658295,0.0329737663269043,-0.023556580767035484,0.041537098586559296,-0.0640176460146904,0.06839575618505478,-0.01709313876926899,0.05985703691840172,-0.05789527669548988,-0.047931693494319916,0.062590092420578,-0.06769493967294693,-0.07048731297254562,-0.032954394817352295,-0.03385357931256294,0.0367690846323967,-0.016281787306070328,-0.022269707173109055,-0.01371874287724495,0.03283153101801872,-0.07073686271905899,0.03158125281333923,0.012651157565414906,-0.05404986813664436,0.040387511253356934,0.07358186691999435,-0.06737654656171799,-0.0707278922200203,0.001696184859611094,0.035291582345962524,0.052884362637996674,0.01975511573255062,-0.0542827732861042,-0.06373044103384018,-0.01373994629830122,-0.07806086540222168,-0.013725394383072853,-0.055207595229148865,0.024942321702837944,0.009390568360686302,0.056554198265075684,-0.012899122200906277,0.03365575522184372,-0.06467094272375107,0.06493684649467468,0.054302867501974106,-0.0783170834183693,-0.045463740825653076,0.000148766630445607,0.014333883300423622,-0.02299620397388935,-0.07459523528814316,-0.0031629344448447227,0.07491745054721832,0.03552531078457832]},"outputBias":{"rows":9,"columns":1,"weights":[-0.00005653830521623604,-0.0000334222313540522,0.0000016848478026076918,-0.000033851774787763134,0.000006491942713182652,0.00007167802687035874,0.00000223903771257028,-0.000006135481726232683,-0.000044540181988850236]},"cellActivationMatrix":{"rows":9,"columns":5,"weights":[-0.05982501059770584,0.013086652383208275,0.0814778208732605,0.03604312241077423,0.041951984167099,-0.056042253971099854,0.03357236832380295,0.05500486120581627,-0.09456916153430939,0.028327979147434235,-0.0690109059214592,-0.062241848558187485,0.0014794835587963462,0.039651911705732346,-0.07432229816913605,0.024340109899640083,-0.042981166392564774,0.010668213479220867,-0.038625769317150116,0.03683270514011383,0.05551258474588394,0.03727754205465317,0.04606854170560837,-0.027658481150865555,-0.05963893607258797,-0.01204095222055912,-0.024743247777223587,0.025543304160237312,0.059958316385746,0.03805246576666832,-0.015609007328748703,-0.04376785084605217,0.012397787533700466,0.08447135984897614,-0.03082466870546341,0.0027640657499432564,0.04450551047921181,-0.014746648259460926,-0.06966625899076462,0.010171018540859222,0.002640084596350789,-0.048781272023916245,0.013769259676337242,0.021629760041832924,0.08405301719903946]},"cellActivationHidden":{"rows":9,"columns":9,"weights":[-0.04415925219655037,0.07847106456756592,-0.051405709236860275,-0.061004262417554855,-0.04399772360920906,-0.06936690956354141,-0.06022880598902702,0.01920328661799431,0.017588818445801735,-0.043627332895994186,-0.030352910980582237,-0.017734874039888382,-0.07456178963184357,-0.04500595107674599,0.022418716922402382,0.0567207895219326,-0.056704916059970856,-0.0028620341327041388,-0.05252901092171669,0.01176634430885315,-0.030722739174962044,-0.05912019684910774,0.07341931760311127,0.06766296923160553,0.025356600061058998,0.033191874623298645,-0.06720102578401566,-0.038736648857593536,0.0058294800110161304,0.03371892869472504,0.0032252317760139704,0.012557023204863071,-0.05353708192706108,0.07756638526916504,-0.058798469603061676,0.013802233152091503,0.031491879373788834,-0.016860751435160637,-0.07502279430627823,0.04337398707866669,0.07046125829219818,-0.0742986798286438,0.07706760615110397,0.002215311164036393,-0.03000769577920437,-0.030721493065357208,0.06372524797916412,0.07400503009557724,-0.00960549246519804,0.0023178299888968468,-0.06832360476255417,-0.039027296006679535,0.014949330128729343,-0.01674726791679859,0.008119826205074787,-0.011107787489891052,0.0748877227306366,-0.06006516516208649,0.06896758079528809,-0.019774535670876503,0.024746302515268326,-0.07673303037881851,-0.05787694454193115,-0.06486823409795761,0.06429172307252884,-0.020644890144467354,-0.0016633410705253482,-0.0330226793885231,-0.0459723062813282,-0.007264403160661459,-0.03261014074087143,0.0070189726538956165,0.07599687576293945,-0.02719064988195896,-0.022289788350462914,-0.012830705381929874,0.07819070667028427,0.05991961061954498,-0.0719733014702797,-0.025791916996240616,-0.0128425108268857]},"cellActivationBias":{"rows":9,"columns":1,"weights":[0.017884932458400726,0.029354484751820564,0.002948179142549634,0.03280170261859894,0.0062818764708936214,-0.029671521857380867,-0.0031626473646610975,-0.007409821264445782,0.017633536830544472]}},{"inputMatrix":{"rows":8,"columns":9,"weights":[0.06972477585077286,0.016111494973301888,0.05902138352394104,0.013246587477624416,-0.03390299156308174,0.04513203725218773,0.007304544094949961,-0.021655967459082603,-0.007425043731927872,-0.06749451160430908,0.0331302247941494,-0.027703240513801575,-0.05066869407892227,0.02739773876965046,-0.07030369341373444,0.050883449614048004,-0.01861576922237873,-0.010745159350335598,-0.07028278708457947,0.07143718004226685,-0.0031290187034755945,0.04514053091406822,-0.03629046306014061,0.014544771052896976,-0.061917148530483246,-0.0696568638086319,0.020843539386987686,-0.04620854929089546,0.07654236257076263,-0.026143066585063934,0.02024017833173275,0.06826803833246231,0.050272535532712936,-0.030740395188331604,-0.06749790161848068,-0.06289846450090408,0.05792742222547531,0.040730420500040054,-0.07250919938087463,0.05293722078204155,-0.06101001799106598,0.024895289912819862,0.04227721318602562,-0.038969092071056366,0.02967889793217182,-0.014107379131019115,-0.023700334131717682,0.0793091282248497,0.03228214010596275,0.025062553584575653,-0.06003664433956146,0.052012234926223755,-0.06392619758844376,-0.07768220454454422,-0.07204494625329971,-0.0696595162153244,0.0028239155653864145,-0.058093562722206116,0.020764829590916634,0.06044792756438255,0.0007731527439318597,-0.047496501356363297,0.04204089194536209,-0.022717511281371117,0.07228917628526688,0.056284498423337936,0.07192259281873703,-0.04598069563508034,-0.07900166511535645,-0.07245387881994247,-0.05275147035717964,0.0045105889439582825]},"inputHidden":{"rows":8,"columns":8,"weights":[0.01811903715133667,-0.031583189964294434,0.03776021674275398,0.062308698892593384,0.047691863030195236,-0.009474428370594978,0.021605229005217552,-0.034552592784166336,-0.060892630368471146,0.07311958819627762,0.04355049878358841,-0.0117422454059124,-0.022245051339268684,-0.0054121664725244045,0.045820847153663635,0.07002528011798859,0.03388025984168053,-0.06222598999738693,-0.07930055260658264,-0.01246553659439087,-0.0614142119884491,0.05450375750660896,0.027905495837330818,0.0345304012298584,0.03818462789058685,-0.061972033232450485,0.05497187376022339,-0.0279957614839077,-0.07112356275320053,-0.019719533622264862,-0.026029732078313828,-0.014009409584105015,0.008798632770776749,-0.0744413435459137,-0.010129625909030437,-0.06525872647762299,0.02750222571194172,0.015908552333712578,0.05949404090642929,0.040449559688568115,-0.011757900938391685,0.06839630007743835,0.06173008680343628,-0.040876492857933044,0.021101048216223717,0.07412078231573105,0.05768793448805809,-0.021662017330527306,-0.01053972914814949,-0.06781380623579025,-0.013818261213600636,-0.012541762553155422,-0.06362694501876831,0.050407033413648605,0.007794194854795933,-0.06096775829792023,0.05341881513595581,0.019161954522132874,-0.005380046088248491,-0.05576435104012489,0.03619549050927162,-0.007863536477088928,-0.02604622021317482,-0.07891155779361725]},"inputBias":{"rows":8,"columns":1,"weights":[-0.0035611470229923725,-0.0008927708840928972,-0.01658848114311695,-0.025752879679203033,-0.001853500260040164,-0.0002598897845018655,-0.0012268543941900134,-0.007236504927277565]},"forgetMatrix":{"rows":8,"columns":9,"weights":[-0.05194550007581711,0.0389159619808197,-0.022192124277353287,-0.07882065325975418,0.03340727463364601,-0.03028648905456066,-0.06860644370317459,-0.021409042179584503,-0.03659960627555847,-0.07917768508195877,-0.049906764179468155,0.052304770797491074,0.03344639018177986,-0.05441881716251373,0.058777522295713425,0.036118511110544205,-0.06807827949523926,0.07690425217151642,0.01346699707210064,0.05328695848584175,-0.03956521302461624,-0.05394040420651436,0.031634099781513214,-0.059531185775995255,0.05204280465841293,-0.009344469755887985,0.045662473887205124,-0.03846050053834915,0.06732389330863953,0.014388888143002987,-0.07935775071382523,0.000695815309882164,0.07846752554178238,-0.007552944589406252,0.06666813045740128,0.04578413441777229,0.07221566140651703,0.005103718489408493,0.06764653325080872,0.031503960490226746,0.06651042401790619,0.04735561087727547,0.05924512445926666,0.008667823858559132,-0.02403390221297741,0.060662273317575455,-0.05351278930902481,-0.05924404785037041,-0.05692589655518532,-0.0038196267560124397,0.03556344658136368,0.028770601376891136,0.01300141867250204,0.05164054408669472,0.0033340847585350275,0.05687517672777176,0.032589398324489594,0.0424511581659317,0.008749711327254772,-0.046170320361852646,-0.0676722526550293,0.07212700694799423,0.02423075959086418,-0.03512688726186752,-0.018362222239375114,-0.04225098341703415,0.015254880301654339,-0.0024321209639310837,0.0028224277775734663,0.0741492360830307,-0.04090801253914833,-0.035386957228183746]},"forgetHidden":{"rows":8,"columns":8,"weights":[-0.05282798036932945,-0.0639771819114685,-0.07711899280548096,0.03391551226377487,-0.05248132348060608,0.008463725447654724,-0.078620545566082,0.056872300803661346,-0.05670025572180748,0.03628750145435333,0.0081653306260705,0.053860198706388474,0.04318671673536301,0.02361070178449154,0.0228543970733881,-0.03510837256908417,0.07412324100732803,0.0750964879989624,-0.07972890883684158,0.04653019458055496,0.053253695368766785,-0.0652647539973259,0.05478188022971153,-0.05107380822300911,0.0537654310464859,-0.07160131633281708,0.01986348070204258,-0.0026892132591456175,0.013508663512766361,0.07220287621021271,0.015725236386060715,-0.026872441172599792,0.017033487558364868,0.03326158598065376,0.02127181738615036,-0.028355855494737625,-0.016028335317969322,0.022735541686415672,-0.01744195818901062,-0.06707210838794708,0.007889961823821068,-0.06305708736181259,0.029269158840179443,-0.06628759950399399,0.023415101692080498,-0.023928791284561157,-0.009870649315416813,0.0751432478427887,-0.0031577888876199722,0.04165486991405487,0.004299095831811428,-0.01985742151737213,0.04100872948765755,-0.06257306039333344,-0.0478232242166996,-0.051578275859355927,0.0738910511136055,0.026031851768493652,0.017437029629945755,0.027744894847273827,0.06755534559488297,0.0685981810092926,-0.07255925238132477,0.018599821254611015]},"forgetBias":{"rows":8,"columns":1,"weights":[0,0,0,0,0,0,0,0]},"outputMatrix":{"rows":8,"columns":9,"weights":[-0.009137513116002083,-0.05633685365319252,-0.016393201425671577,-0.03168739005923271,0.023759519681334496,0.02015180140733719,-0.01985969766974449,-0.015829535201191902,0.026132017374038696,0.05989282950758934,-0.0016490615671500564,-0.05164790526032448,-0.05322862043976784,0.06730491667985916,-0.07687285542488098,0.06549161672592163,0.053119998425245285,0.03846774622797966,0.06866767257452011,-0.034000180661678314,-0.012902864255011082,-0.053165044635534286,0.0741562694311142,0.07171208411455154,-0.0404360257089138,-0.07823973149061203,-0.0768744945526123,-0.04027374088764191,0.015002148225903511,0.008827066980302334,0.03966774791479111,0.07356198132038116,0.006645310670137405,0.014781752601265907,0.049523722380399704,0.07824103534221649,-0.023969080299139023,-0.0451136939227581,-0.022216901183128357,-0.005371743813157082,-0.06567741185426712,0.025013353675603867,-0.030493322759866714,0.03578624501824379,-0.00027302655507810414,0.07713338732719421,-0.000012711157978628762,-0.06565535813570023,0.05906672775745392,0.07582419365644455,-0.03055184707045555,0.02481790818274021,-0.03719201311469078,-0.07766149193048477,-0.002058657817542553,0.0794546827673912,0.04468994215130806,0.04814960062503815,-0.00644739018753171,-0.002483641728758812,-0.07563777267932892,-0.061729952692985535,0.0328812301158905,0.04028698056936264,0.07219666987657547,-0.07421112805604935,-0.018126988783478737,0.026545654982328415,-0.07234729081392288,0.03764684870839119,-0.06104659661650658,0.062140870839357376]},"outputHidden":{"rows":8,"columns":8,"weights":[0.07831810414791107,-0.034624166786670685,0.045823510736227036,0.04200157895684242,-0.022568542510271072,0.02978578768670559,-0.017109055072069168,-0.035069823265075684,0.018563102930784225,0.02579317055642605,-0.006897178944200277,-0.029663920402526855,0.030746838077902794,-0.04444480687379837,-0.011333920061588287,0.014605003409087658,-0.0023752085398882627,-0.026588385924696922,0.07744411379098892,0.055401988327503204,0.06455153971910477,0.07142440974712372,-0.07867149263620377,-0.01352062076330185,0.01356858853250742,0.06192662939429283,-0.05276317894458771,-0.06647645682096481,-0.05635165050625801,-0.011881528422236443,-0.07277475297451019,0.06479974836111069,-0.0731615200638771,0.07622776925563812,-0.04875867813825607,0.004788101650774479,-0.003562642727047205,-0.04763547703623772,-0.06325875222682953,-0.011251099407672882,0.06010982394218445,0.01570345088839531,0.03590841218829155,0.003204368520528078,-0.01273053977638483,0.04259652644395828,0.04695240035653114,0.027435816824436188,0.023877477273344994,-0.01597152277827263,-0.0718957930803299,-0.01153720822185278,-0.07918281108140945,-0.03907809406518936,-0.07520269602537155,-0.07742916792631149,-0.029418321326375008,-0.05640178546309471,0.07108276337385178,-0.017487389966845512,-0.06961227208375931,0.0013797912979498506,0.015573893673717976,0.04189857095479965]},"outputBias":{"rows":8,"columns":1,"weights":[-0.00356081104837358,-0.0008928593597374856,-0.016590645536780357,-0.0257558636367321,-0.0018532105023041368,-0.0002599183935672045,-0.001226947526447475,-0.007237385492771864]},"cellActivationMatrix":{"rows":8,"columns":9,"weights":[-0.010927754454314709,0.04905449226498604,-0.039078108966350555,0.013596517033874989,0.044424958527088165,-0.0719388872385025,0.01944396086037159,-0.05580267310142517,0.04870341718196869,0.0765291303396225,0.05188284069299698,0.039828330278396606,0.07633457332849503,-0.026941293850541115,-0.07079125195741653,-0.016605593264102936,-0.06114198639988899,-0.02144884504377842,0.020547717809677124,0.0244512427598238,-0.08263049274682999,0.0458228699862957,0.08416178077459335,-0.014164098538458347,-0.02279595285654068,0.053064215928316116,0.0036531034857034683,0.017306774854660034,0.044962335377931595,0.01486074086278677,0.031110510230064392,-0.048118989914655685,0.018783289939165115,-0.042436499148607254,0.02193525992333889,0.07865709811449051,0.04895995557308197,0.08565004169940948,-0.06280121207237244,-0.01935739628970623,-0.009172816760838032,-0.04081599786877632,-0.03449922800064087,0.011158162727952003,0.06456305086612701,0.015489905141294003,0.005632549058645964,0.07090219855308533,0.06869319081306458,-0.060809917747974396,0.02008415199816227,-0.04231715947389603,0.027589382603764534,0.06872282922267914,-0.017244048416614532,-0.049523066729307175,-0.0067564514465630054,-0.07341951876878738,0.01864653266966343,0.03712763264775276,0.0016915240557864308,0.015593416057527065,0.019766589626669884,0.01731147989630699,0.054297685623168945,-0.06039908155798912,-0.06443972140550613,-0.0649753287434578,-0.013451681472361088,-0.04302729293704033,-0.03124859929084778,0.07619281858205795]},"cellActivationHidden":{"rows":8,"columns":8,"weights":[-0.015630455687642097,-0.027580346912145615,0.018842574208974838,-0.009639451280236244,0.05340172350406647,0.008290608413517475,0.04539259895682335,-0.008715013042092323,-0.020978929474949837,0.040142398327589035,0.08799564838409424,0.03235674276947975,-0.06415446102619171,0.0243171826004982,0.018297260627150536,-0.07581028342247009,0.027129320427775383,-0.04193883016705513,0.08747746795415878,0.10917305201292038,0.08069757372140884,0.05721089243888855,-0.042403385043144226,-0.05351196974515915,-0.025308797135949135,0.05744623392820358,0.035441454499959946,0.0964803546667099,0.03761258348822594,-0.007666291203349829,0.028665553778409958,-0.043922774493694305,-0.007606850937008858,-0.06984135508537292,0.037802714854478836,-0.017879310995340347,0.04795828461647034,0.026262447237968445,0.04921611398458481,-0.07685811817646027,-0.010045995935797691,-0.020075803622603416,-0.06633888185024261,-0.024761153385043144,-0.06550481915473938,-0.0342290922999382,-0.06675504893064499,-0.04399201273918152,-0.026147523894906044,0.0649423822760582,0.03898154944181442,0.010851006954908371,0.07491360604763031,0.05324025824666023,0.04272310063242912,-0.06764109432697296,0.018834315240383148,-0.03174086660146713,0.01266480702906847,-0.09882660955190659,0.005928394850343466,-0.03346440941095352,-0.06542229652404785,0.000021310490410542116]},"cellActivationBias":{"rows":8,"columns":1,"weights":[1.2440135478973389,0.976479172706604,1.1098006963729858,1.8462975025177002,1.1437383890151978,-0.06577057391405106,-0.5079377889633179,-0.9648737907409668]}},{"inputMatrix":{"rows":6,"columns":8,"weights":[-0.010409599170088768,0.035346463322639465,-0.04825834184885025,0.07746290415525436,0.049789149314165115,0.050884097814559937,0.007342298049479723,-0.039687369018793106,0.005841445177793503,-0.023383142426609993,-0.22624032199382782,-0.15585176646709442,-0.0016403918853029609,0.06618250906467438,0.07307546585798264,0.18788480758666992,-0.027934666723012924,-0.028162145987153053,0.022071242332458496,-0.005323844030499458,0.023916199803352356,-0.05213595926761627,-0.02448304370045662,0.04251498728990555,-0.009409687481820583,0.044517435133457184,-0.22722111642360687,-0.30183789134025574,0.011672447435557842,0.10877317190170288,0.08286463469266891,0.19136330485343933,-0.047072652727365494,0.05867535248398781,-0.1064731627702713,-0.1375432014465332,0.019477052614092827,0.02065962925553322,0.03679923713207245,-0.013245334848761559,0.03076835162937641,0.04957601800560951,0.033049218356609344,0.04391799867153168,-0.06256615370512009,-0.0845603421330452,-0.07521691173315048,0.028630416840314865]},"inputHidden":{"rows":6,"columns":6,"weights":[0.1650390923023224,0.3523922860622406,-0.015280090272426605,0.4575175344944,-0.1124621033668518,0.20738999545574188,-2.1251959800720215,-2.7547531127929688,-0.6381756663322449,-2.947484016418457,1.988159418106079,-2.1864442825317383,-0.16985929012298584,-0.2272089272737503,0.0368490144610405,-0.39491215348243713,0.1971983015537262,-0.11617302894592285,-2.2868242263793945,-2.8416783809661865,-0.6854156255722046,-2.9157049655914307,2.14290452003479,-2.3372769355773926,-0.9763371348381042,-1.5263017416000366,-0.17590005695819855,-1.9197185039520264,0.7143812775611877,-1.0065490007400513,0.7196152210235596,1.2857760190963745,0.10722129791975021,1.5869675874710083,-0.6329541206359863,0.6968259215354919]},"inputBias":{"rows":6,"columns":1,"weights":[-0.03444339707493782,-3.0833563804626465,-1.5035672187805176,-3.0858349800109863,-2.8172974586486816,2.643199920654297]},"forgetMatrix":{"rows":6,"columns":8,"weights":[0.07993721216917038,0.005257348529994488,0.08104649931192398,0.018796488642692566,-0.01884307526051998,-0.006650101393461227,-0.07744474709033966,-0.05835654214024544,-0.09807127714157104,-0.08835535496473312,-0.1931437849998474,-0.04254162684082985,0.0008240171009674668,-0.01817411370575428,-0.05294773727655411,0.06983030587434769,-0.047317832708358765,0.06465321779251099,0.02981387823820114,0.059857986867427826,0.011717451736330986,-0.06753187626600266,-0.040231458842754364,-0.02056206576526165,0.0073431143537163734,-0.05177608132362366,-0.17103976011276245,-0.029475156217813492,0.04867185652256012,-0.022630611434578896,-0.048944298177957535,-0.0016137863276526332,0.05477738752961159,-0.022040491923689842,-0.09893634170293808,-0.01884404383599758,-0.024777472019195557,0.06612925231456757,-0.06960085034370422,-0.011483659967780113,-0.0018493408570066094,0.02405201829969883,0.04518134891986847,-0.03738081827759743,-0.029291540384292603,-0.06257376819849014,0.04071575403213501,-0.06318730860948563]},"forgetHidden":{"rows":6,"columns":6,"weights":[-0.006339491810649633,0.13079802691936493,0.02761407569050789,0.17843097448349,-0.07916441559791565,0.05529887229204178,-0.8549637794494629,-1.463509202003479,-0.21644234657287598,-1.7005994319915771,0.6140888333320618,-0.8932977914810181,-0.010640975087881088,-0.18134763836860657,-0.057931866496801376,-0.2047567069530487,0.0807453915476799,-0.020489199087023735,-0.9834593534469604,-1.6219141483306885,-0.17073863744735718,-2.0080323219299316,0.8112807273864746,-0.9587202668190002,-0.2200872302055359,-0.47712215781211853,0.022454513236880302,-0.6350598931312561,0.2860174775123596,-0.25074151158332825,0.28654471039772034,0.3809995949268341,0.09374113380908966,0.5280755162239075,-0.21900586783885956,0.2121228724718094]},"forgetBias":{"rows":6,"columns":1,"weights":[0,0,0,0,0,0]},"outputMatrix":{"rows":6,"columns":8,"weights":[-0.035041444003582,-0.02849671058356762,0.05535952374339104,0.06162538379430771,0.0164045337587595,-0.07741343230009079,-0.0710834264755249,-0.09719616919755936,-0.05443277209997177,-0.0400388203561306,-0.44182729721069336,-0.36253106594085693,-0.04243973270058632,0.10146191716194153,0.02002784051001072,0.21959887444972992,-0.051181137561798096,-0.058472905308008194,-0.06547921895980835,0.03389742597937584,-0.026032986119389534,0.029827460646629333,0.025339484214782715,-0.032998379319906235,-0.039838556200265884,-0.04974806681275368,-0.5508628487586975,-0.31213459372520447,-0.11689245700836182,0.07853012531995773,0.10427679866552353,0.3026616871356964,-0.08239639550447464,0.05973901227116585,-0.10676603019237518,-0.17355971038341522,-0.08473553508520126,0.012615938670933247,0.007348636165261269,0.07189422100782394,0.034728553146123886,0.08118393272161484,0.14740057289600372,0.06703760474920273,0.06894828379154205,-0.05616272985935211,-0.03463311120867729,-0.04261239618062973]},"outputHidden":{"rows":6,"columns":6,"weights":[0.26979684829711914,0.4531528055667877,0.11431995779275894,0.6973464488983154,-0.2876030504703522,0.22808393836021423,-2.4899380207061768,-2.8790535926818848,-0.8134075999259949,-2.9856371879577637,2.309953212738037,-2.595980167388916,-0.24009977281093597,-0.4573097825050354,-0.03754843771457672,-0.4516969919204712,0.20392486453056335,-0.2161056250333786,-2.586236000061035,-3.027378797531128,-0.8995459079742432,-3.079063653945923,2.4858174324035645,-2.660764455795288,-1.2259796857833862,-1.8628126382827759,-0.3089035749435425,-2.2374205589294434,0.896540105342865,-1.2364706993103027,0.9499608874320984,1.7167725563049316,0.2732316553592682,1.9577419757843018,-0.8268128037452698,1.0538055896759033]},"outputBias":{"rows":6,"columns":1,"weights":[-0.03476322814822197,-3.0862207412719727,-1.5041431188583374,-3.0880625247955322,-2.8206675052642822,2.650676965713501]},"cellActivationMatrix":{"rows":6,"columns":8,"weights":[0.021603986620903015,0.017736729234457016,-0.2799607515335083,-0.24010364711284637,-0.07633545994758606,0.045607246458530426,0.06496156752109528,0.061105966567993164,0.1727174073457718,0.0225183367729187,1.0522894859313965,0.8292673826217651,0.13416068255901337,-0.27747803926467896,-0.2099071592092514,-0.4909595847129822,0.18340782821178436,0.1408919245004654,0.6804704070091248,0.5425704121589661,0.13655342161655426,-0.2830798327922821,-0.11614970862865448,-0.28268012404441833,0.13811226189136505,0.10167614370584488,0.7482942342758179,0.6112910509109497,0.035753604024648666,-0.20211909711360931,-0.05967402458190918,-0.3990427255630493,-0.17357894778251648,-0.14356502890586853,-0.9049857258796692,-0.7317686676979065,-0.11525823920965195,0.23706650733947754,0.08213101327419281,0.4372226893901825,-0.13992196321487427,-0.07444034516811371,-0.40372517704963684,-0.3849432170391083,-0.019204024225473404,0.05419621616601944,0.021648919209837914,0.2826964259147644]},"cellActivationHidden":{"rows":6,"columns":6,"weights":[-1.5010520219802856,-2.129937171936035,-0.31676724553108215,-2.425682306289673,1.0873336791992188,-1.5152615308761597,3.038347005844116,3.129546642303467,1.7478697299957275,3.2180685997009277,-2.9507853984832764,3.0051591396331787,2.9129810333251953,3.0363664627075195,1.4306317567825317,3.081794023513794,-2.8319880962371826,2.9265029430389404,3.018078088760376,3.1568350791931152,1.5130035877227783,3.184666156768799,-2.8248634338378906,2.941615104675293,-3.0845296382904053,-3.1804869174957275,-1.5754064321517944,-3.1181697845458984,2.894615411758423,-2.9460232257843018,-2.7031033039093018,-2.9318108558654785,-1.074375033378601,-3.021798610687256,2.5930352210998535,-2.778552293777466]},"cellActivationBias":{"rows":6,"columns":1,"weights":[0.035759489983320236,2.686112880706787,3.0957517623901367,2.5214977264404297,-2.9691076278686523,-3.395475387573242]}},{"inputMatrix":{"rows":3,"columns":6,"weights":[3.095351219177246,3.372910976409912,2.8199880123138428,3.302433729171753,-3.2400784492492676,3.092817544937134,-1.6284959316253662,-1.4958096742630005,-0.29972273111343384,-1.4907901287078857,0.5877980589866638,-2.1796090602874756,-0.15139301121234894,1.480249047279358,1.1292624473571777,1.6011143922805786,-1.2679952383041382,-0.9088233113288879]},"inputHidden":{"rows":3,"columns":3,"weights":[-3.916746139526367,-3.9352331161499023,-1.0331171751022339,-5.647430419921875,-4.644363880157471,-2.504880428314209,-2.516449451446533,-2.5094215869903564,-2.472627878189087]},"inputBias":{"rows":3,"columns":1,"weights":[4.061790466308594,2.8152427673339844,-2.726876735687256]},"forgetMatrix":{"rows":3,"columns":6,"weights":[3.1005382537841797,3.195176362991333,2.464782953262329,3.198237657546997,-3.1431305408477783,3.131204605102539,0.7442843914031982,1.6349098682403564,0.39201050996780396,1.8808649778366089,-0.9087813496589661,0.6076632142066956,0.05728627368807793,0.2565077543258667,0.11366483569145203,0.24629412591457367,-0.23781143128871918,-0.19735877215862274]},"forgetHidden":{"rows":3,"columns":3,"weights":[-3.3802459239959717,-3.3730218410491943,-0.4231397211551666,-3.5888776779174805,-1.9367218017578125,-1.0754047632217407,-0.9073839783668518,-1.0275336503982544,-0.9212527275085449]},"forgetBias":{"rows":3,"columns":1,"weights":[0,0,0]},"outputMatrix":{"rows":3,"columns":6,"weights":[3.111790657043457,3.4948883056640625,3.278005361557007,3.47322154045105,-3.397665023803711,3.0183939933776855,-1.5394843816757202,-0.7003906965255737,0.09566189348697662,-0.846042811870575,0.01205703429877758,-2.1677474975585938,-0.06184723973274231,1.9290893077850342,1.4099432229995728,1.9938359260559082,-1.6082345247268677,-1.1523702144622803]},"outputHidden":{"rows":3,"columns":3,"weights":[-4.416140079498291,-4.54306173324585,-1.8827710151672363,-5.975357532501221,-4.816864967346191,-2.8140957355499268,-2.9113895893096924,-2.9204487800598145,-2.838268756866455]},"outputBias":{"rows":3,"columns":1,"weights":[4.18368673324585,2.7568235397338867,-2.7938125133514404]},"cellActivationMatrix":{"rows":3,"columns":6,"weights":[3.0736007690429688,3.137019634246826,1.6126760244369507,3.1257448196411133,-3.022160291671753,3.1279213428497314,-0.051911115646362305,-0.15965306758880615,-0.05311821028590202,-0.1860380619764328,0.08858102560043335,-0.047410402446985245,-0.0023264996707439423,0.12994031608104706,0.06774317473173141,0.1750452071428299,-0.030285654589533806,-0.009488682262599468]},"cellActivationHidden":{"rows":3,"columns":3,"weights":[-3.417712688446045,-3.3020923137664795,-0.3145734369754791,-0.4004414677619934,-0.12484749406576157,-0.04704486206173897,-0.26845479011535645,-0.21084804832935333,-0.24921296536922455]},"cellActivationBias":{"rows":3,"columns":1,"weights":[5.00068473815918,3.699828624725342,2.1010003089904785]}}],"outputConnector":{"rows":6,"columns":3,"weights":[5.528752326965332,3.2527060508728027,3.156170606613159,-2.045877456665039,-3.0897669792175293,-3.1274611949920654,0.17528697848320007,2.9406347274780273,3.081813097000122,5.62490701675415,3.366231918334961,3.1816205978393555,5.586462497711182,3.2193925380706787,3.1912410259246826,-4.992744445800781,-2.6167216300964355,-2.259035110473633]},"output":{"rows":6,"columns":1,"weights":[-3.828683853149414,0.5762138366699219,0.494628369808197,-3.8566315174102783,-3.844087600708008,-3.235520362854004]}}